function [y1] = myNeuralNetworkFunction(x1)
%MYNEURALNETWORKFUNCTION neural network simulation function.
%
% Generated by Neural Network Toolbox function genFunction, 16-Nov-2018 18:16:37.
%
% [y1] = myNeuralNetworkFunction(x1) takes these arguments:
%   x = 16xQ matrix, input #1
% and returns:
%   y = 1xQ matrix, output #1
% where Q is the number of samples.

%#ok<*RPMT0>

% ===== NEURAL NETWORK CONSTANTS =====

% Input 1
x1_step1.xoffset = [14444;7376;0;0;1;0;-6;-9;-11;0;-3;-8;24044.3194444444;1528.09417459351;19028;744.549019490485];
x1_step1.gain = [2.56377387514421e-05;2.35078398645948e-05;0.0869565217391304;0.0363636363636364;0.333333333333333;2;0.153846153846154;0.142857142857143;0.0909090909090909;0.125;0.181818181818182;0.142857142857143;5.41692042807214e-05;0.000144357175020698;3.3974411605659e-05;0.00011707280394537];
x1_step1.ymin = -1;

% Layer 1
b1 = [0.74202426128795329;-0.15666640627571887;0.71909967067886182;-2.5581562990473516;0.98646884024020176;3.131808774550668;-0.64131215028122701;0.19458980479585328;1.6799293174303664;0.90995028987163562;0.81133053019296208;-1.7326796774612494;0.10152047365874059;1.3309788062739623;0.18155542867008251;0.36770762793570649;-1.0763456720855094;-1.2625653236251946;-0.51711500349501693;-0.67876713357215956;-0.98563249124375463;0.045790359171188434;-0.30309236203328671;0.72417232154870892;-0.31783040786797678;0.41535120823755511;-0.016622645218560224;1.0118905253832233;0.30054542882835245;-1.8126181746367709;-0.32528338765648374;0.21256519720924702;0.71695225545403485;-0.58220216132759806;-2.0276683992316529;-0.18132711500279433;-1.995264171158768;0.859164993326888;-0.057346043572005706;-0.76792894011052637];
IW1_1 = [0.5317301735001112 0.6745958782752316 -2.4466093771353905 -0.10075783274042074 1.0497885106039557 -0.17509083261554753 1.3376969347874912 0.025926813045046293 -0.48514529759185349 -1.5011375819553028 -1.0327811652006775 -0.95981112975528793 -0.828613945146362 3.3241542097082903 2.4622646927609804 -0.57808368664528598;-0.16227835968898588 -0.27892532151704058 0.46272164659179299 0.017396234730602009 -0.088683451667037616 -0.21664803436492402 0.48030635461561993 -1.2309221405294521 0.81193138332782233 -0.26989872869506043 0.67614584215494922 0.21680714961887651 0.38207137203226266 0.10106612362711183 -0.42632361729809165 0.37678277029682511;0.087702957551093155 0.024099493950979437 -0.68338284919152947 -0.024799533571605758 0.14306353667249044 -0.017316835579310508 2.2240576355211727 -1.9886232566932449 1.9007994218493445 0.7899863307777889 0.48077391103825212 -1.3223733109042484 -0.46753107926195814 0.57088223700880292 1.9315524633381751 -0.41882805306902249;0.00030035347898841637 -0.947037526934421 -2.6386560396747796 -0.07558368814336118 0.17450864085647552 0.60484749263990834 2.2710126987233701 1.20822873134936 1.0523934682398635 0.5890964713706297 -2.4295684564483451 -1.3665454012396665 0.5599943525117933 2.4520264090077926 -2.1067216961320496 -0.42031653273912689;-0.019536121153288726 -0.066252777743400298 1.0663854734816458 0.038612102843153293 -0.8726044499581791 -0.48331734503243196 0.091711256541538597 0.21379653615381516 1.5395725986367583 0.68812590850695698 -0.10304187893508429 -1.184820397240429 0.91501255541676663 1.2681958565989424 0.24996212333524667 0.14526131758160155;-0.40914315709210669 0.50866012801824667 2.6069358706346022 0.066087256720563786 0.52248027096211569 -2.8982798840428452 -1.3346792526895677 3.4364016285482886 2.0628672985580128 -2.1808710089853416 2.5459612784928018 -1.2675736639381783 2.1587909431478964 2.3702215012932717 3.329379563943339 0.75020437865217271;-0.16695222162941076 -0.17664577962091316 2.2309131035140171 0.080364159721179551 1.1823702808673344 0.22172467403813917 -0.75498582559028116 -0.60387983102090259 1.5962638382286312 -0.72585440027778458 0.36334136369575026 -0.99863156324737823 0.016857994044677912 -2.229692984020724 -1.084781944766954 0.22855182255247625;-0.16828158740399646 0.32555073094749376 2.1835379800557808 0.077485648978657423 -0.77506022408993736 -0.85365261690657335 -1.114722643263814 -0.69851558509125655 2.1196903290120419 -1.8244989212059151 2.2860231125285093 -1.9276579734521928 -0.76819308609393966 1.1635848088436207 -0.97999055394062706 0.12235135594029656;0.25248243321892933 0.31550343774621992 -2.7686274128389101 -0.092371246144458644 0.58413787283440655 0.13560456234553928 1.1150420351549293 -0.064277868087835172 0.87126730189932178 -0.11616270286598464 -2.8551348714142351 0.46775892817350934 0.47506857733193503 3.4217533547331844 1.2588450250007768 -0.22565547254950818;0.021677048963892935 -0.24747438646904574 0.074624063134687307 0.013844899314387029 -1.028116263851691 -0.48109934382329672 0.9342129849915497 -1.6996956916986656 1.2162102082629813 1.246919798176666 -1.2009979761016232 0.30613493006333659 0.61234937158142921 1.1129658241562854 -0.50549102188551764 0.27191386541845897;0.16202594611235113 0.33803494957763724 -1.163378963849597 -0.046208504698468073 -0.15272551547451743 0.023635319823417492 -0.7003874833241257 1.1797419386034793 -1.6579034193701101 0.017893180278161259 -0.52916601882733549 -0.12513484891425422 -0.53237023515156778 0.59213251137616152 0.42336914291434041 -0.19266987602591815;-0.055917996056159637 -0.44592776170355486 -1.8048593421038017 -0.048696725253461977 -0.28110045861444755 0.41808247591382947 -0.052288102945856181 0.38520306324958364 0.56367508681820711 1.7262732860336776 0.11180362481936194 -1.741238820633854 0.93606109700625317 0.50686698469041136 -1.3560714576818225 0.49050153064865992;-0.063937707959333054 0.01136429386743551 1.2437684148415096 0.039140850707725897 0.12217618075169338 -0.13197574267785336 -1.9116928334640921 1.2539385564738854 -1.5121465835266441 -0.14851107087312471 -0.31323578630429322 1.184456307104254 -0.38858158345380228 -0.38169116026563132 -1.2472951604868665 0.42382804064343915;-0.10445446427386866 -0.63366563888553451 3.1936625529419822 0.1008356948472271 -1.4444005583417845 -0.19420914375825982 -2.1515839066442179 0.66796920581601216 2.1250872670815455 0.8231697928495052 -3.0585315377862896 -1.3648403627339083 2.0787936388557413 1.0992940750521027 -1.0524888094381029 -0.091004924623528854;-0.07948596571459296 -0.058992607056462344 1.4359897434731994 0.046686135136473864 0.42083859732004852 -0.19891457621643899 -1.4797539497162615 0.26678107139483342 -0.91247810476263669 -1.174676152117186 1.5272745288167873 -0.0021150108490862497 -0.86835402321472932 0.22434795917949035 -0.55202238107506607 0.39226563758984578;-0.030255870873549903 -0.16057490039119898 -0.38484350588174465 -0.024290987351035791 1.0680688652589836 0.67291322360211603 -0.44886817087983671 -0.18195942741875942 -0.88610334289285142 1.5060954295842266 1.2044736572806327 1.2853248242284323 -0.47216365718962594 1.6843758026657483 -2.0096247093613093 -0.040395020653451734;-0.43198593843023475 -0.50903937669082222 2.4963605502704871 0.097211708559776136 -0.98836879098689479 0.14795456732664944 -1.5025547527295904 0.50720977025497982 -0.10641877104981631 0.93275285912638228 1.6409422075757232 0.50909197339828482 0.37902326268857212 -3.2782944949037049 -1.9730227843811738 0.39954472882168274;-0.066798360224096673 -0.53153099287468775 0.74306522427915989 0.024157037121690247 0.18338688530824143 1.0627853852024476 0.64929672360238466 -0.061361590223755536 -2.1037622052745353 -0.18594339426937451 -0.49724525452935314 -0.16072066626968229 0.38213466964814741 -0.12094170796882976 -1.2324403105396575 -0.15874509243843199;0.019632398650638001 0.16957333493092028 -1.8422486498707638 -0.060984830169874979 0.17396146152370467 0.10883693173078897 0.18179221486986447 -0.55054320613861263 0.94631037034361354 0.82587294328673211 -1.6381298745824058 0.37097231086501575 -0.54411051419863465 0.62502923517383291 0.75635393596581257 0.018040812997440998;0.11041272832778205 1.1737058561343192 -0.99699566740325041 -0.033097626981283296 0.13464697322238092 0.92732029067696042 0.80439005492586413 0.59573878908642963 0.59182509070370082 1.2872068527872496 0.69461547358868636 -1.599320890647997 2.0283291041920264 -1.1167784011390589 -0.40698267449694903 0.638907100852385;0.064580730437952219 0.056486607241330186 -1.1711575540510886 -0.036424393503646298 1.1657352675572361 0.5668783816721239 -0.87508917134737363 0.91207229899245734 -1.2469191060155453 -1.3097227128753828 0.83158736835124003 0.41379465867954729 -0.7066985573532989 -0.87023986183762414 -0.5915248120096438 -0.10810689360148283;0.11560887649202808 0.083120853133916206 -0.92741698584709586 -0.03676025788241933 0.2117454593570248 0.2261947179346904 -0.13168442853908391 -1.818416986585 0.065112897943329598 0.31533517085043961 -0.41358796432872436 2.1179671166537029 -1.238207333262314 0.56378691598066766 -0.91225303029149973 -0.75112567759334392;-0.18599697941556323 -0.11230142607211085 0.19740309564453187 0.0030576601855946072 0.23945688218534242 0.85057553098724681 -1.9438303300049475 1.3566765432633505 -1.352478655166736 -0.73880604651191628 1.1108245917545447 0.40194052106953648 -0.11919218553490329 0.69594378541767521 -0.009217823446520293 -0.64951565490941332;-0.12464809769823484 0.015829807486179966 0.95887480256263657 0.034356613124184907 -0.368117605955741 -0.14662479085356858 -0.73337071374537899 -0.40948051259515172 0.83236593909009515 -0.70202023263676583 -0.73037349909462257 0.33219126856401582 0.15960689274284368 0.26994970458966017 -0.28076734295754757 0.094019934086699522;0.12171662361157216 0.66300694399408511 -0.27457235284236736 -0.014880731085379611 -0.013966664905361078 0.45471268407953147 0.38259211652992797 0.28736626360312606 -1.1621718971718105 0.4353087033474965 0.42566780713253294 -1.3134537849749701 0.40023606933501654 -0.84251009032002888 -0.044924296643502906 -0.85001740938931603;-0.3498436594527643 0.58814952102679963 -2.3151720842590771 -0.063850476834890202 -0.3339777225192867 0.46108374711717598 1.8972464216444296 -1.7929550242041881 0.9970015733259322 -0.48521776506017283 -0.32493485045052761 1.7323063626315507 -2.3591037533114134 1.0758573748446274 -0.46969326922677601 0.3220972123747966;-0.48487209466926684 0.75699220863098415 -2.6810444955473689 -0.076065122148050571 -0.20074633800004113 0.33098194876270953 2.1735310441062055 -1.6863276196961547 0.92388243246030266 -0.86289877512115221 -0.061087945228350204 1.5299594799924183 -1.9965027291188224 0.81580605931755135 -0.69884026529190535 0.14583592213641772;-0.054656011812012399 -0.2511271128638739 1.3756308701150974 0.046415584581102842 -0.21207816060894494 -0.22238515231123868 -1.0382445175003034 0.24686634437188984 -0.46868032534483156 -0.12704659186750422 1.9199787051571913 -0.69759868357567734 -0.25588574947469761 0.24990496943015314 -0.043936772881297999 0.22802661035901275;-0.020443768212616894 0.11287577144295387 -0.35960729778798239 -0.021881941723504397 0.84887796183579645 0.6336667381876061 -0.10172606168153907 -0.92904451528147547 -0.45090919038752153 0.62397804949908098 0.92170066339763967 1.3087526298763912 -0.3719715744195824 0.78984151264893643 -1.6801454632370103 -0.27983832438007089;-0.36541791809581997 -0.26259220056782479 -2.5578606684937326 -0.10947716527313402 -1.2657933895465572 0.39889874460636987 0.71910109351708162 1.2952282976345486 -2.0424803335817123 -0.68472360080838801 1.6211885689413656 -1.61231704469156 -1.1700299090115676 3.5844433224184962 -1.2649825971549984 -0.36143799012199213;0.17277357082016154 0.031183892794948535 0.98700968997785676 0.022035787310756047 0.25027639559093912 -0.8530343997081038 -0.68299783037398276 0.46910051837744415 -0.21922311665540004 -0.26633214481067707 0.49386562397211725 -0.086928479597904729 1.0845362076023466 -1.6519742692547348 1.0511643399831083 -0.080691396900593279;-0.3143759192265651 -0.39380924780354537 0.98404663388465607 0.043521315679943579 1.533833044368021 1.141193417608575 -1.5606218599196522 -1.0687370850622955 -1.3502277370145483 -1.2114245175586444 1.7534114681691642 -0.23762248779804734 2.9011261471473917 0.91334782758162514 -1.3718287779744696 -0.19670402801687875;-0.065927053073149708 -0.032327467398020976 -1.6631422218516243 -0.036288696734234994 1.4815750454534953 0.49771025357591003 -0.45498546138283064 -0.57085395050437837 0.57334128711619359 -0.31261655086574741 1.2709459103336775 1.5393683096926087 0.9326144789831885 0.39858793930181607 0.064097215481631054 0.14580644032418727;-0.094618514117956451 -0.018257295153471985 0.4210277898168881 0.017099995030871624 -0.43204527249010966 0.140776484464747 -1.0864877952415448 0.937338410861427 -0.13323928123055293 -1.1917613001228966 1.2312652252570584 -0.89415967626180537 -0.041672673991552334 0.2831661188883503 -1.0806566351355738 -0.056580286432064121;-0.081338378380884854 -0.58115032222618335 0.78079652357944573 0.032256709951685766 -0.17838556998113159 0.94491974903736053 0.41151152896705961 0.12814148991077723 -0.56043002679013088 1.80084464111619 0.077433165630848497 -1.7681265416980863 -0.51726335135001766 -0.39059457922577906 -0.71200057919615656 -0.058719449537866071;-0.73210682496902657 -0.39137145062704509 1.3436658557284846 0.045215269268678623 -0.80174673941443464 -0.28216932611216394 1.7494595478632775 1.3795254052589043 -0.58118137805410919 0.13084340991569804 0.017685137524734523 -2.8738916333097895 0.97949898291419346 -0.85719820497125054 1.024249022447788 1.8210665479733399;-0.23203953682974107 -0.57769714994980659 3.0639711691025733 0.12092863001834661 0.032669374804791596 0.22322841653369518 0.52081996359802363 -0.2360972360969979 -0.36330333526570885 -1.8933769516242469 1.3233424022592111 0.7608121526553151 0.35637857570184683 -2.7211164676299022 -0.38895703771125306 -0.10594438136615633;-0.20118037244732612 0.0037442377334686939 6.2670430159902848 0.27572642671842856 0.81280914312787889 -0.54289139920871299 -1.0620411908143037 3.1743376059327955 -0.24502820727782645 -0.2012489763369267 1.0750014115605326 -1.9403610382989407 1.6540843648167529 -1.2957094703175536 0.39662365589467269 -0.3531140453323704;0.067525682846438381 -0.19870457753949372 -1.1609701302754289 -0.038093833111662555 0.60368211829080043 0.37486392799669255 0.80226579653756624 -0.24594864235658895 -0.89088078824424766 0.92174751930991983 -0.91799419337674315 1.1562583698866133 0.29627626191776302 -0.30012761706835561 0.43255637967684046 -0.014243093779705328;0.017899085746040676 -0.20437961781349065 0.80301686631670099 0.033906923325806831 0.15521892934495324 0.20353403702885009 0.89268504199737408 -0.41352551551779138 -0.82064503353951235 0.35875627577153263 -1.2019170431336434 2.0037693850083547 -0.041619025933831266 -0.43417821831439118 0.09286018224785221 -0.1360752184291916];

% Layer 2
b2 = -0.53834723850055433;
LW2_1 = [-1.7028638190408436 -1.7995456722465299 -0.79997211141611457 -0.29037707569612531 -2.114997992197321 0.2344424319538502 -0.49590914571208256 -0.68783336469479739 -0.87223736460834522 0.92289077540659992 -1.4916179277478445 0.66515149036157017 -1.3431789907405736 0.32605143539345771 1.5087422166232827 -0.6538911676065875 -2.4108355542711073 0.5685944680928291 -1.1724808192704861 -0.381008174645105 -1.6627990552656093 -0.86048649872324179 0.66062563847939504 -1.4350463218966381 -0.58570794413757399 -1.0596670503833214 0.85231412140658136 -1.4221116035926429 0.87677524246793936 -0.30051610667171419 -0.81793853042888076 -0.34466065414655445 0.64242479202377334 -1.3685612983256927 -0.48764619168600631 -0.28453604449534836 0.29384875168850788 -0.13838257260148773 -2.4811297914397623 -1.1436462060182986];

% Output 1
y1_step1.ymin = -1;
y1_step1.gain = 2.56377387514421e-05;
y1_step1.xoffset = 14444;

% ===== SIMULATION ========

% Dimensions
Q = size(x1,2); % samples

% Input 1
xp1 = mapminmax_apply(x1,x1_step1);

% Layer 1
a1 = tansig_apply(repmat(b1,1,Q) + IW1_1*xp1);

% Layer 2
a2 = repmat(b2,1,Q) + LW2_1*a1;

% Output 1
y1 = mapminmax_reverse(a2,y1_step1);
end

% ===== MODULE FUNCTIONS ========

% Map Minimum and Maximum Input Processing Function
function y = mapminmax_apply(x,settings)
y = bsxfun(@minus,x,settings.xoffset);
y = bsxfun(@times,y,settings.gain);
y = bsxfun(@plus,y,settings.ymin);
end

% Sigmoid Symmetric Transfer Function
function a = tansig_apply(n,~)
a = 2 ./ (1 + exp(-2*n)) - 1;
end

% Map Minimum and Maximum Output Reverse-Processing Function
function x = mapminmax_reverse(y,settings)
x = bsxfun(@minus,y,settings.ymin);
x = bsxfun(@rdivide,x,settings.gain);
x = bsxfun(@plus,x,settings.xoffset);
end
